svm_type c_svc
kernel_type rbf
gamma 1
nr_class 2
total_sv 1323
rho 0.37514984599971174
label 1 -1
nr_sv 662 661
SV
1 1:-1.09 2:0.437 
1 1:0.0809 2:1.93 
1 1:-1.69 2:-0.0461 
1 1:1.26 2:1.21 
1 1:1.16 2:-0.458 
1 1:-0.595 2:-0.651 
1 1:-0.871 2:-0.825 
1 1:1.74 2:0.964 
1 1:1.18 2:-0.335 
1 1:0.785 2:0.0481 
1 1:-0.508 2:-0.715 
1 1:-0.308 2:2.19 
1 1:1.36 2:-0.732 
1 1:0.98 2:-0.0439 
1 1:1.22 2:-0.361 
1 1:-0.0269 2:0.958 
1 1:0.826 2:1.5 
1 1:0.706 2:1.38 
0.89942197785940292 1:-1.26 2:0.23 
1 1:0.744 2:1.42 
1 1:1.02 2:-0.261 
1 1:-1.16 2:0.469 
1 1:0.0179 2:-0.7 
1 1:0.666 2:1.36 
1 1:0.741 2:-1.2 
1 1:-0.0987 2:0.966 
1 1:0.896 2:1.58 
1 1:0.579 2:-1.02 
1 1:0.916 2:0.144 
1 1:1.42 2:-0.32 
1 1:0.535 2:0.504 
1 1:1.14 2:-0.209 
1 1:0.268 2:-1.08 
1 1:1.19 2:0.113 
1 1:1.23 2:-0.0582 
0.69103723838370534 1:0.44 2:0.399 
1 1:1.23 2:-0.615 
1 1:0.36 2:-0.715 
1 1:-0.956 2:-0.818 
1 1:-1.25 2:0.512 
1 1:-1.9 2:0.106 
1 1:-0.112 2:-0.841 
1 1:0.842 2:-1.41 
1 1:0.564 2:-1.13 
1 1:-0.579 2:-0.748 
1 1:0.719 2:0.0781 
1 1:-0.24 2:1.72 
1 1:0.298 2:-0.829 
1 1:0.328 2:1.71 
1 1:-1.06 2:0.496 
1 1:0.99 2:-0.0762 
1 1:0.569 2:1.62 
1 1:0.837 2:1.75 
1 1:1.37 2:-0.331 
1 1:1.46 2:-0.417 
1 1:-0.0203 2:1.92 
1 1:-1.24 2:-0.919 
1 1:0.778 2:1.44 
1 1:0.74 2:1.2 
1 1:0.529 2:0.788 
1 1:-1.35 2:0.424 
1 1:-0.672 2:0.683 
1 1:-1.01 2:-0.771 
0.20386629482586585 1:-0.739 2:0.578 
1 1:0.416 2:1.86 
1 1:0.422 2:-0.934 
1 1:-0.0552 2:0.882 
1 1:-0.875 2:0.591 
1 1:-0.0242 2:-0.659 
1 1:-0.516 2:0.831 
1 1:-1.12 2:0.559 
1 1:0.743 2:-1.18 
1 1:1.28 2:-0.176 
0.63985196245084552 1:1.58 2:-1.29 
1 1:0.642 2:1.65 
1 1:0.333 2:-0.845 
1 1:-1.01 2:-1.27 
1 1:-0.198 2:1.67 
1 1:-0.287 2:-0.726 
1 1:-0.623 2:-0.737 
1 1:-1.3 2:-1.17 
1 1:0.576 2:1.7 
1 1:0.552 2:-1.07 
1 1:-1.64 2:0.143 
1 1:0.775 2:0.0171 
1 1:-0.636 2:-0.988 
1 1:0.0949 2:-0.854 
1 1:0.939 2:1.69 
1 1:0.324 2:1.68 
1 1:-1.35 2:-1.19 
1 1:-1.11 2:0.439 
1 1:0.169 2:1.86 
1 1:-1.11 2:0.655 
1 1:-0.118 2:1.7 
1 1:0.272 2:1.82 
1 1:-1.07 2:0.534 
1 1:0.755 2:0.22 
1 1:0.27 2:0.696 
1 1:1.47 2:-0.312 
1 1:0.816 2:0.306 
1 1:0.934 2:0.258 
1 1:0.154 2:-0.653 
1 1:-0.264 2:-0.768 
1 1:-0.573 2:-0.789 
1 1:0.184 2:1.7 
1 1:0.0317 2:-0.821 
1 1:-0.235 2:-0.617 
1 1:0.796 2:0.429 
0.35327805428000464 1:-1.97 2:-0.271 
1 1:-0.283 2:1.88 
1 1:-0.451 2:0.775 
1 1:-0.786 2:-0.64 
1 1:-0.0895 2:1.65 
1 1:-0.232 2:-0.843 
1 1:0.802 2:0.431 
1 1:-1.42 2:-1.51 
1 1:1.08 2:1.42 
1 1:-1.13 2:-1.08 
1 1:-1.07 2:-1.11 
1 1:-0.311 2:0.995 
0.62873722140390587 1:-1.91 2:-2.24 
1 1:0.0584 2:-0.638 
1 1:1.15 2:1.16 
1 1:0.522 2:1.36 
1 1:0.322 2:1.68 
1 1:0.407 2:1.67 
1 1:1.41 2:-0.808 
1 1:0.896 2:0.36 
1 1:-1.26 2:-1.01 
1 1:0.839 2:-0.0819 
0.26635886400674502 1:2.81 2:1.3 
1 1:-0.54 2:-0.601 
1 1:0.636 2:1.34 
1 1:1.89 2:0.834 
1 1:0.713 2:2.04 
1 1:-0.966 2:0.487 
1 1:-0.339 2:0.806 
1 1:0.323 2:-0.796 
1 1:-1.15 2:0.406 
1 1:0.216 2:1.96 
1 1:1 2:1.69 
1 1:1.33 2:-0.486 
1 1:1.07 2:-0.221 
1 1:-0.0692 2:1.73 
1 1:-0.112 2:1.85 
1 1:0.74 2:1.53 
1 1:0.616 2:-1.07 
1 1:-0.286 2:-0.571 
1 1:0.526 2:1.36 
1 1:-0.251 2:0.846 
1 1:-0.71 2:-0.874 
1 1:-1.95 2:-0.16 
1 1:0.553 2:-0.817 
1 1:-1.25 2:-0.897 
1 1:0.791 2:1.69 
1 1:1.18 2:1.25 
1 1:0.748 2:1.81 
1 1:0.74 2:1.35 
1 1:-1.02 2:0.899 
1 1:-1.01 2:0.412 
1 1:1.31 2:-0.566 
1 1:-0.806 2:0.575 
1 1:1.08 2:1.36 
1 1:0.908 2:1.48 
1 1:0.355 2:0.562 
1 1:-1.18 2:0.422 
1 1:1.26 2:-0.328 
1 1:0.0828 2:-0.879 
1 1:0.287 2:1.45 
1 1:-0.278 2:-0.815 
1 1:1.46 2:-0.509 
1 1:1.35 2:1.21 
1 1:-0.528 2:0.953 
1 1:-0.0601 2:2.04 
1 1:1.42 2:-0.697 
1 1:-0.269 2:0.961 
1 1:0.433 2:1.65 
1 1:-1.03 2:-0.858 
1 1:-0.541 2:-0.65 
1 1:-0.247 2:0.775 
1 1:0.714 2:-1.19 
0.069491335878848162 1:1.26 2:-2.39 
1 1:0.109 2:1.65 
1 1:0.646 2:1.82 
1 1:1.05 2:-0.362 
1 1:-0.213 2:0.77 
1 1:1.03 2:1.55 
1 1:0.153 2:-0.875 
1 1:-0.353 2:1.98 
1 1:0.764 2:1.98 
1 1:0.511 2:-0.773 
0.47601774719786843 1:-0.681 2:-0.586 
1 1:-0.439 2:-0.884 
1 1:0.139 2:-0.803 
1 1:0.269 2:0.605 
1 1:0.305 2:1.63 
1 1:0.605 2:1.86 
1 1:-0.818 2:0.654 
1 1:0.941 2:-0.254 
1 1:0.413 2:0.473 
1 1:1.01 2:1.82 
1 1:0.768 2:-1.25 
1 1:0.424 2:0.547 
1 1:0.528 2:-1.04 
1 1:-0.987 2:-0.735 
0.42635418382912149 1:0.952 2:-1.9 
1 1:1.4 2:-0.874 
1 1:-0.813 2:-0.665 
1 1:0.742 2:1.56 
1 1:-0.171 2:1.68 
1 1:0.395 2:1.35 
1 1:0.387 2:1.59 
1 1:0.923 2:0.166 
1 1:0.714 2:-1.08 
1 1:-1.28 2:-1.17 
1 1:0.854 2:0.0949 
1 1:0.671 2:0.181 
1 1:0.796 2:0.423 
1 1:0.833 2:-0.0565 
1 1:0.478 2:1.31 
1 1:0.667 2:-1.01 
1 1:-0.129 2:0.877 
1 1:0.427 2:1.77 
0.053507409946691578 1:1.33 2:-0.774 
1 1:0.616 2:1.77 
1 1:0.945 2:0.239 
1 1:1.31 2:-0.36 
1 1:1.01 2:1.57 
1 1:0.729 2:1.49 
1 1:-1.21 2:0.357 
1 1:1.11 2:1.33 
1 1:-1.24 2:0.323 
1 1:-0.241 2:0.897 
1 1:-1.67 2:-0.00451 
1 1:1.04 2:-0.24 
1 1:0.175 2:0.652 
1 1:-0.0814 2:2.18 
1 1:0.62 2:-0.986 
1 1:1.21 2:1.31 
1 1:-0.0999 2:1.97 
1 1:0.458 2:-0.709 
1 1:0.227 2:1.71 
1 1:0.364 2:1.98 
1 1:0.269 2:1.62 
1 1:0.171 2:1.59 
1 1:-0.779 2:0.676 
1 1:1.53 2:-1.05 
1 1:0.145 2:-0.626 
1 1:0.534 2:1.86 
1 1:-0.973 2:0.495 
1 1:0.932 2:1.43 
1 1:0.74 2:0.053 
1 1:1.27 2:-0.675 
1 1:0.561 2:1.74 
1 1:0.211 2:1.71 
1 1:-0.755 2:-0.759 
1 1:0.544 2:-0.842 
1 1:1.67 2:0.974 
1 1:-0.146 2:1.83 
1 1:1.19 2:-0.319 
1 1:0.316 2:1.43 
1 1:0.646 2:-0.932 
1 1:1.62 2:-1.16 
1 1:0.576 2:-1.05 
1 1:0.635 2:1.67 
1 1:0.336 2:0.611 
1 1:1.35 2:1.1 
1 1:0.0853 2:0.789 
1 1:-1.49 2:0.228 
1 1:0.418 2:-0.897 
1 1:-0.119 2:2.06 
1 1:0.533 2:0.541 
1 1:0.423 2:0.598 
1 1:0.595 2:0.546 
1 1:0.136 2:1.46 
1 1:-1.06 2:-0.86 
1 1:0.759 2:0.0328 
1 1:-0.635 2:1.94 
1 1:0.219 2:1.59 
1 1:0.955 2:-0.23 
1 1:-0.436 2:0.821 
1 1:0.683 2:1.6 
0.4520569059651951 1:-1.42 2:-1.28 
1 1:-0.821 2:-0.855 
1 1:0.589 2:0.557 
1 1:-0.818 2:-0.69 
1 1:0.995 2:0.131 
1 1:1.32 2:-0.616 
1 1:0.993 2:0.397 
1 1:0.811 2:0.00911 
1 1:0.899 2:1.4 
1 1:-1.17 2:-0.95 
1 1:0.418 2:-0.711 
1 1:-0.0272 2:1.86 
1 1:-1.53 2:0.132 
1 1:-1.28 2:-1.07 
1 1:0.942 2:1.89 
1 1:-0.82 2:-0.76 
1 1:0.785 2:0.158 
1 1:1 2:0.285 
1 1:-0.149 2:0.816 
1 1:-1.93 2:-0.0856 
1 1:1.1 2:-0.374 
1 1:0.19 2:0.969 
1 1:1.52 2:-1.12 
1 1:0.641 2:1.72 
1 1:-1.25 2:-1.14 
1 1:-0.957 2:0.848 
1 1:-0.000689 2:2 
1 1:0.224 2:1.57 
1 1:1.63 2:-2.16 
1 1:0.953 2:1.14 
1 1:-0.89 2:-1.18 
1 1:-0.451 2:0.723 
1 1:-1.03 2:-0.95 
1 1:0.452 2:1.95 
1 1:-0.172 2:-0.676 
1 1:0.455 2:-0.869 
1 1:0.632 2:1.45 
1 1:-0.688 2:0.709 
1 1:-0.974 2:-0.818 
1 1:0.565 2:1.56 
1 1:0.587 2:0.322 
1 1:1.11 2:-0.476 
1 1:-1.29 2:-1.03 
1 1:0.74 2:0.203 
1 1:0.133 2:2.04 
1 1:0.764 2:0.381 
1 1:-0.167 2:-0.633 
1 1:0.115 2:1.41 
1 1:0.297 2:-1.11 
1 1:-1.81 2:0.0758 
1 1:0.534 2:-0.763 
1 1:0.875 2:1.82 
1 1:0.521 2:0.375 
1 1:0.575 2:1.42 
1 1:-1.23 2:-1.15 
1 1:-0.629 2:0.809 
1 1:-1.02 2:0.409 
1 1:-1.2 2:0.4 
1 1:1.1 2:-0.364 
1 1:1.28 2:-0.341 
1 1:1.01 2:-0.205 
1 1:0.0745 2:-0.607 
1 1:-1.19 2:-1 
1 1:0.224 2:1.75 
1 1:-0.275 2:1.52 
1 1:-1.63 2:0.279 
1 1:1.13 2:1.51 
1 1:0.377 2:1.72 
1 1:0.83 2:1.67 
1 1:0.47 2:-0.765 
1 1:0.621 2:1.48 
1 1:1.52 2:-0.85 
1 1:-1.51 2:0.213 
1 1:0.923 2:1.54 
1 1:0.921 2:1.12 
1 1:0.592 2:0.235 
1 1:-0.856 2:-0.664 
1 1:0.0844 2:1.72 
1 1:-1.39 2:-1.35 
1 1:0.0971 2:1.58 
1 1:0.606 2:1.77 
1 1:0.318 2:1.82 
1 1:-0.108 2:-0.793 
1 1:0.318 2:0.621 
1 1:1.18 2:1.36 
1 1:0.896 2:0.363 
1 1:1.01 2:1.21 
1 1:0.832 2:-1.29 
1 1:-1.19 2:-1.14 
1 1:0.289 2:0.598 
1 1:-1.29 2:-1.14 
1 1:-0.921 2:0.894 
1 1:0.31 2:0.57 
1 1:-0.243 2:1.76 
1 1:-0.838 2:0.644 
1 1:0.883 2:0.106 
1 1:-1.05 2:-0.832 
1 1:1.13 2:1.38 
0.34811345955952611 1:1.67 2:-1.77 
1 1:0.956 2:0.558 
1 1:0.841 2:-0.0776 
1 1:0.811 2:-1.65 
1 1:0.569 2:0.481 
1 1:0.637 2:1.55 
1 1:0.747 2:-1.05 
1 1:1.32 2:-0.311 
1 1:0.981 2:0.26 
1 1:1.03 2:0.252 
1 1:-2.13 2:-0.347 
1 1:-0.425 2:0.996 
1 1:1.22 2:-0.607 
1 1:0.101 2:1.93 
1 1:0.4 2:1.68 
1 1:1.25 2:1.2 
1 1:0.75 2:1.92 
1 1:0.423 2:1.74 
1 1:0.667 2:1.92 
1 1:-0.633 2:-0.698 
1 1:-0.692 2:0.759 
1 1:-0.987 2:-0.814 
1 1:-0.502 2:1.84 
1 1:1.32 2:-0.331 
1 1:0.454 2:1.48 
1 1:0.558 2:-1.06 
1 1:0.95 2:-0.0297 
1 1:1.27 2:-0.573 
1 1:-0.364 2:1.7 
1 1:0.171 2:2.11 
1 1:-0.971 2:-0.906 
1 1:-0.14 2:-0.694 
1 1:0.358 2:-0.887 
1 1:1.14 2:-0.286 
1 1:-0.153 2:1.97 
1 1:0.097 2:-0.593 
1 1:0.383 2:-0.824 
1 1:1.48 2:1.01 
1 1:-1.31 2:-1.11 
1 1:1.37 2:-0.8 
1 1:-0.874 2:0.719 
1 1:1.09 2:-0.384 
1 1:-0.972 2:-1.08 
1 1:0.928 2:-0.102 
1 1:-0.0275 2:-0.582 
1 1:-0.0839 2:1 
0.83323823051808799 1:0.2 2:-0.609 
1 1:-1.51 2:0.348 
1 1:0.418 2:0.616 
1 1:-0.00124 2:-0.938 
1 1:-0.637 2:0.942 
1 1:-0.0254 2:-0.79 
1 1:-0.132 2:1.68 
1 1:-1.17 2:0.564 
1 1:1.1 2:1.38 
1 1:0.635 2:0.559 
1 1:-1.32 2:0.516 
1 1:-1.02 2:0.521 
1 1:-1.3 2:-1.08 
1 1:0.388 2:0.484 
1 1:1.35 2:-0.387 
1 1:0.177 2:0.731 
1 1:0.319 2:1.61 
1 1:0.0605 2:2.06 
1 1:0.0165 2:-0.639 
1 1:-1.23 2:-1.3 
1 1:-1.79 2:-0.0728 
1 1:-1.55 2:0.121 
1 1:1.26 2:-0.553 
1 1:-1.31 2:-1.16 
1 1:1.08 2:0.148 
1 1:0.389 2:-0.804 
1 1:0.168 2:1.97 
1 1:0.677 2:0.108 
1 1:1.23 2:-0.146 
1 1:1.95 2:0.902 
1 1:-0.736 2:0.683 
1 1:0.71 2:1.7 
1 1:0.207 2:0.65 
1 1:1.02 2:-0.351 
1 1:-1.08 2:-0.868 
1 1:-1.52 2:0.246 
1 1:-0.241 2:0.774 
1 1:0.464 2:-0.792 
1 1:0.572 2:-0.812 
1 1:0.566 2:-0.977 
1 1:-1.4 2:0.261 
1 1:-0.793 2:0.905 
1 1:1.39 2:-0.631 
1 1:1.23 2:0.0999 
1 1:1.1 2:-0.313 
1 1:-1.72 2:0.142 
1 1:1.38 2:-0.645 
1 1:-1.12 2:0.589 
1 1:-0.385 2:-0.734 
1 1:0.244 2:1.84 
1 1:1.55 2:1.1 
1 1:0.928 2:1.45 
1 1:1.38 2:1.25 
1 1:-0.223 2:1.65 
1 1:0.009 2:0.928 
1 1:0.521 2:0.56 
1 1:0.605 2:0.378 
1 1:-0.582 2:-0.587 
1 1:0.459 2:1.69 
1 1:0.603 2:1.8 
1 1:1.37 2:1.24 
1 1:-0.169 2:-0.601 
1 1:0.918 2:1.72 
1 1:-1.14 2:-0.927 
1 1:0.188 2:1.59 
1 1:0.385 2:-1.07 
1 1:1.16 2:-0.357 
1 1:0.955 2:0.142 
1 1:-0.978 2:-1.05 
1 1:0.942 2:1.83 
1 1:-0.685 2:0.727 
0.46588437482245498 1:0.875 2:-1.47 
1 1:0.731 2:1.74 
1 1:-0.114 2:0.846 
1 1:-0.262 2:1.71 
1 1:1.04 2:0.0909 
1 1:-1.34 2:-1.05 
1 1:-1.18 2:-0.898 
1 1:1.08 2:1.37 
1 1:-0.325 2:0.969 
1 1:0.332 2:-0.69 
1 1:1.12 2:-0.447 
1 1:-0.23 2:2 
1 1:0.101 2:0.881 
1 1:0.916 2:-0.0255 
1 1:-0.238 2:1.74 
1 1:-1.28 2:-1.12 
1 1:-1.4 2:0.247 
1 1:0.655 2:1.72 
1 1:-0.58 2:-0.579 
1 1:-1.5 2:0.0847 
1 1:-0.403 2:-0.636 
1 1:-1.31 2:0.239 
1 1:-0.639 2:0.68 
1 1:0.76 2:-1.16 
1 1:-1.79 2:-0.124 
1 1:1.09 2:1.49 
1 1:0.429 2:1.94 
1 1:0.381 2:1.61 
1 1:0.0439 2:2.03 
1 1:-0.553 2:-0.687 
1 1:0.221 2:0.946 
1 1:-0.977 2:0.639 
1 1:0.167 2:-0.793 
1 1:0.435 2:1.31 
1 1:-0.00145 2:-0.7 
1 1:0.431 2:1.64 
1 1:-0.516 2:-0.92 
1 1:0.473 2:-1.11 
1 1:-0.452 2:-0.717 
1 1:-0.508 2:-0.694 
1 1:-0.743 2:0.685 
1 1:0.192 2:1.94 
1 1:-0.077 2:1.87 
1 1:-0.561 2:-0.787 
1 1:0.617 2:1.34 
1 1:0.229 2:0.613 
1 1:0.478 2:0.46 
1 1:0.625 2:1.38 
1 1:-0.648 2:-0.713 
1 1:0.137 2:1.94 
1 1:1.34 2:-0.632 
1 1:1.57 2:-0.909 
1 1:0.0271 2:1.83 
1 1:-0.0208 2:1.76 
1 1:0.75 2:1.63 
1 1:0.621 2:1.32 
1 1:0.996 2:1.46 
1 1:-0.698 2:-0.726 
0.92441033447597831 1:0.938 2:-0.255 
1 1:-0.728 2:-0.76 
1 1:-1.3 2:0.651 
1 1:0.5 2:0.762 
1 1:0.157 2:-0.652 
1 1:0.344 2:1.38 
1 1:-1.5 2:0.282 
1 1:0.845 2:0.00714 
1 1:1.43 2:-0.816 
1 1:0.16 2:-0.616 
1 1:-0.113 2:2.13 
1 1:-0.972 2:0.473 
1 1:0.535 2:1.46 
1 1:-0.996 2:-0.984 
1 1:1.73 2:0.979 
1 1:0.396 2:1.81 
0.061129117126315746 1:0.725 2:-0.99 
1 1:-1.22 2:0.569 
1 1:-0.64 2:0.705 
1 1:0.966 2:-0.199 
1 1:1.18 2:1.42 
0.47380406404417169 1:-1.2 2:-0.826 
1 1:-1.1 2:0.419 
1 1:-0.198 2:-0.661 
1 1:0.712 2:1.49 
1 1:0.825 2:-1.28 
1 1:0.634 2:0.366 
1 1:0.247 2:1.65 
1 1:0.282 2:-0.761 
1 1:-0.192 2:0.791 
1 1:0.424 2:1.64 
1 1:-1.21 2:-1.16 
1 1:0.673 2:0.172 
1 1:-0.836 2:-0.65 
1 1:-1.4 2:-1.54 
1 1:-0.131 2:1.76 
1 1:-0.301 2:1.82 
1 1:-1.21 2:-0.854 
1 1:-0.184 2:-0.751 
1 1:0.608 2:-1.18 
1 1:0.142 2:-0.698 
0.53764261722960505 1:1.28 2:1.35 
1 1:1.42 2:-0.208 
1 1:-0.074 2:1.97 
1 1:0.0285 2:1.72 
1 1:0.222 2:1.47 
1 1:-0.522 2:0.877 
1 1:1.16 2:0.151 
1 1:-0.879 2:0.499 
1 1:-1.42 2:0.592 
1 1:0.612 2:1.8 
1 1:1.25 2:-0.146 
1 1:-0.102 2:1.57 
1 1:1.01 2:1.53 
1 1:-1.54 2:0.516 
1 1:0.209 2:0.755 
1 1:-1.1 2:0.641 
1 1:-0.208 2:-0.646 
1 1:-0.622 2:0.804 
1 1:0.309 2:-0.689 
1 1:-0.987 2:-0.863 
1 1:0.659 2:-0.985 
1 1:0.235 2:1.48 
1 1:-1.11 2:-0.821 
1 1:-0.895 2:-1.07 
1 1:0.235 2:0.772 
1 1:0.735 2:1.63 
1 1:-0.2 2:1.74 
1 1:0.774 2:-1.22 
1 1:0.397 2:0.513 
1 1:-0.377 2:-0.617 
1 1:1.46 2:-0.91 
1 1:0.739 2:0.139 
1 1:0.369 2:0.49 
1 1:-0.521 2:0.726 
1 1:-0.76 2:-0.698 
1 1:0.544 2:1.63 
1 1:1.56 2:-0.367 
1 1:0.557 2:-1.04 
1 1:0.838 2:-0.115 
1 1:-0.282 2:1.78 
1 1:0.824 2:0.587 
1 1:0.753 2:1.89 
1 1:0.56 2:1.7 
1 1:-0.613 2:0.775 
1 1:0.819 2:0.0462 
1 1:1.06 2:-0.0531 
1 1:-0.234 2:-0.656 
1 1:0.234 2:-0.822 
1 1:0.0224 2:1.43 
1 1:1.06 2:-0.0553 
1 1:1.29 2:-0.657 
1 1:1.26 2:-0.181 
1 1:-0.815 2:-0.682 
1 1:0.527 2:0.51 
1 1:1.15 2:-0.451 
1 1:-1.14 2:-1.27 
1 1:-0.582 2:-0.752 
1 1:0.406 2:-0.707 
1 1:1.15 2:0.0436 
1 1:-1.13 2:0.411 
1 1:0.762 2:0.125 
1 1:-0.674 2:-0.62 
1 1:0.244 2:-0.69 
1 1:-0.974 2:0.511 
1 1:-0.954 2:0.687 
1 1:0.335 2:1.39 
-1 1:1.14 2:-0.114 
-1 1:-1.02 2:0.619 
-1 1:0.444 2:1.99 
-1 1:1.13 2:1.48 
-1 1:0.0483 2:0.866 
-1 1:0.522 2:1.46 
-1 1:0.526 2:1.48 
-1 1:1.22 2:1.13 
-1 1:0.415 2:-1 
-1 1:-1.03 2:0.654 
-1 1:-1.12 2:0.576 
-1 1:-0.101 2:-0.765 
-1 1:1.39 2:-0.376 
-1 1:0.77 2:1.4 
-1 1:-0.833 2:-0.569 
-1 1:-0.0303 2:2.11 
-1 1:-1.62 2:0.102 
-1 1:0.529 2:0.133 
-1 1:0.386 2:1.55 
-1 1:0.162 2:-0.791 
-1 1:-0.0674 2:1.85 
-1 1:0.174 2:1.92 
-1 1:0.291 2:-0.795 
-1 1:0.254 2:-0.862 
-1 1:0.912 2:-0.114 
-1 1:-1.03 2:-1.09 
-1 1:-1.19 2:0.309 
-1 1:0.121 2:1.72 
-1 1:-0.723 2:0.633 
-0.16446788934854129 1:-0.63 2:0.949 
-1 1:0.0681 2:-0.76 
-1 1:0.909 2:0.118 
-1 1:0.07 2:1.7 
-1 1:0.0345 2:-0.691 
-1 1:0.529 2:1.62 
-1 1:-0.23 2:1.08 
-1 1:-0.619 2:-0.748 
-1 1:-1.06 2:-1.07 
-1 1:0.498 2:0.567 
-1 1:0.404 2:-0.868 
-1 1:0.0346 2:1.7 
-1 1:-0.207 2:-0.745 
-1 1:0.661 2:1.69 
-1 1:-1.13 2:0.6 
-1 1:0.262 2:-0.673 
-1 1:-1.2 2:-1.02 
-1 1:0.311 2:1.76 
-1 1:-0.473 2:-0.749 
-1 1:0.553 2:1.54 
-0.77666271017622324 1:-0.0381 2:-0.791 
-1 1:1.37 2:-0.643 
-1 1:-1.69 2:-0.175 
-1 1:0.975 2:1.48 
-1 1:1.34 2:-0.261 
-1 1:0.672 2:2.03 
-1 1:-0.648 2:-0.631 
-1 1:-0.395 2:-0.756 
-1 1:0.54 2:-1.26 
-1 1:-0.455 2:0.868 
-1 1:0.685 2:1.69 
-0.44975988331809874 1:1.66 2:0.672 
-1 1:1.23 2:-0.493 
-0.38906769214260783 1:0.149 2:1.98 
-1 1:1.21 2:1.28 
-1 1:1.31 2:-0.254 
-1 1:-2.07 2:0.0318 
-1 1:0.682 2:1.5 
-1 1:0.307 2:-0.678 
-1 1:0.234 2:0.958 
-1 1:1.27 2:-0.441 
-1 1:-0.704 2:-0.802 
-1 1:1.25 2:-0.35 
-1 1:1.11 2:-0.106 
-1 1:0.844 2:0.243 
-1 1:-0.803 2:-0.782 
-1 1:-1.04 2:0.679 
-1 1:0.61 2:0.488 
-1 1:1.07 2:-0.0433 
-1 1:-1.25 2:-1.28 
-1 1:0.851 2:1.46 
-1 1:0.0744 2:1.04 
-1 1:0.176 2:1.94 
-1 1:-1.16 2:0.381 
-1 1:-1.14 2:0.488 
-1 1:1.36 2:-0.425 
-1 1:0.548 2:-0.959 
-1 1:0.726 2:0.289 
-1 1:-1.29 2:0.511 
-1 1:1.38 2:0.877 
-1 1:0.308 2:0.933 
-0.21381217542420941 1:-0.145 2:1.67 
-1 1:-0.984 2:-0.807 
-1 1:0.379 2:-0.755 
-1 1:-0.43 2:-0.722 
-1 1:0.179 2:1.81 
-1 1:-0.951 2:0.533 
-1 1:-0.504 2:1.03 
-1 1:0.802 2:0.133 
-1 1:-1.74 2:0.254 
-1 1:1.19 2:-0.404 
-1 1:0.604 2:0.374 
-0.88654442877144346 1:0.781 2:0.415 
-1 1:0.415 2:1.8 
-1 1:0.552 2:2.05 
-1 1:-1.21 2:-0.934 
-1 1:-0.424 2:2.01 
-1 1:-0.828 2:-0.839 
-1 1:-0.803 2:-0.705 
-1 1:0.199 2:-0.86 
-1 1:0.56 2:0.491 
-1 1:-1.59 2:0.138 
-1 1:0.26 2:1.91 
-1 1:1.24 2:-0.145 
-1 1:0.143 2:1.05 
-1 1:0.551 2:1.48 
-1 1:0.191 2:1.72 
-1 1:0.345 2:-0.891 
-1 1:-1.52 2:0.388 
-0.91030041582229348 1:1.57 2:-0.566 
-1 1:1.14 2:-0.0771 
-1 1:-0.152 2:-0.669 
-1 1:0.73 2:-0.37 
-1 1:-0.443 2:1.86 
-0.61275060964593975 1:0.834 2:1.24 
-1 1:1.16 2:1.05 
-1 1:0.0296 2:1.2 
-1 1:0.51 2:-1.15 
-1 1:1.8 2:-1 
-1 1:-0.653 2:-0.734 
-1 1:0.167 2:0.87 
-1 1:-0.917 2:-0.863 
-1 1:0.56 2:-1.05 
-1 1:1.18 2:-0.0513 
-1 1:1.31 2:-0.238 
-1 1:1.62 2:-0.919 
-1 1:0.933 2:1.21 
-1 1:0.663 2:1.7 
-1 1:0.0329 2:1.88 
-1 1:0.981 2:-0.0572 
-1 1:-0.259 2:0.996 
-1 1:0.685 2:2.2 
-1 1:0.387 2:1.71 
-1 1:1.26 2:1.72 
-1 1:0.517 2:-0.931 
-1 1:0.213 2:-0.752 
-1 1:-1.15 2:0.587 
-1 1:0.923 2:0.246 
-1 1:-1.02 2:-1.01 
-1 1:0.191 2:1.94 
-1 1:-1.63 2:0.101 
-1 1:-0.948 2:-0.982 
-1 1:0.255 2:0.412 
-1 1:-1.12 2:-1.39 
-1 1:0.725 2:1.39 
-1 1:0.782 2:1.8 
-1 1:0.785 2:0.173 
-1 1:0.682 2:-0.146 
-1 1:-0.167 2:1.07 
-1 1:0.871 2:1.29 
-1 1:0.314 2:1.84 
-1 1:0.0652 2:-0.766 
-1 1:1.34 2:-0.689 
-1 1:-1.21 2:0.488 
-1 1:-0.421 2:-0.731 
-1 1:0.835 2:-0.0137 
-1 1:-0.889 2:-0.884 
-1 1:1.67 2:-0.978 
-1 1:1.75 2:-1.03 
-1 1:0.431 2:0.266 
-1 1:1.31 2:1.07 
-1 1:-0.861 2:-0.862 
-1 1:1.29 2:1.07 
-1 1:0.811 2:2 
-1 1:-1.19 2:-1.03 
-1 1:0.904 2:0.195 
-1 1:-1.25 2:0.479 
-1 1:-0.509 2:0.912 
-1 1:0.137 2:1.69 
-1 1:0.753 2:1.84 
-1 1:0.598 2:0.484 
-1 1:-1.25 2:-1.1 
-1 1:-0.827 2:-0.757 
-1 1:-0.218 2:2.09 
-1 1:0.403 2:-0.997 
-1 1:0.595 2:0.429 
-1 1:-0.93 2:-0.895 
-1 1:-0.499 2:-0.766 
-1 1:0.395 2:0.0856 
-1 1:0.496 2:1.52 
-1 1:-1.55 2:0.386 
-1 1:0.731 2:1.31 
-1 1:-1.1 2:-1.17 
-1 1:0.494 2:-1.01 
-1 1:-0.123 2:1.86 
-0.56131927678012117 1:1.27 2:-0.159 
-0.69389645048990378 1:0.439 2:1.5 
-1 1:-0.79 2:-0.823 
-1 1:0.385 2:-0.744 
-1 1:1.23 2:-0.115 
-1 1:0.495 2:1.54 
-1 1:0.582 2:0.232 
-1 1:0.35 2:0.889 
-1 1:0.29 2:0.591 
-1 1:0.662 2:1.49 
-1 1:-0.995 2:-0.937 
-1 1:-1.31 2:0.463 
-1 1:1.27 2:-0.194 
-1 1:0.424 2:-0.84 
-1 1:1.33 2:-0.704 
-1 1:-0.699 2:0.755 
-1 1:0.471 2:2.03 
-1 1:0.746 2:0.441 
-1 1:-0.914 2:-0.919 
-1 1:-0.391 2:1.1 
-1 1:1.45 2:-0.507 
-1 1:1.29 2:-0.391 
-1 1:-0.869 2:0.625 
-1 1:0.736 2:1.64 
-1 1:-0.496 2:1.03 
-1 1:-0.866 2:0.751 
-1 1:0.758 2:-1.45 
-1 1:-0.869 2:0.634 
-1 1:0.446 2:-1.07 
-1 1:1.52 2:0.795 
-1 1:1.44 2:0.898 
-1 1:-1.2 2:-1.19 
-1 1:0.722 2:0.153 
-1 1:-1.19 2:-0.939 
-1 1:-0.706 2:-0.697 
-1 1:-0.638 2:-0.752 
-1 1:0.168 2:1.7 
-1 1:0.784 2:1.39 
-1 1:-1.25 2:-1.47 
-1 1:-0.307 2:0.938 
-1 1:0.246 2:-0.767 
-1 1:-0.891 2:0.593 
-1 1:-1.08 2:-1.17 
-1 1:-1.2 2:0.455 
-1 1:-0.223 2:1.04 
-1 1:0.308 2:-0.913 
-1 1:1.22 2:-0.159 
-1 1:0.639 2:-0.815 
-1 1:-0.0247 2:-0.765 
-1 1:0.372 2:1.6 
-1 1:1.14 2:-0.0829 
-1 1:-0.617 2:-0.792 
-1 1:-0.847 2:-0.896 
-1 1:0.357 2:0.647 
-1 1:0.955 2:-0.0158 
-1 1:0.957 2:0.0986 
-1 1:0.196 2:1.08 
-1 1:0.272 2:0.813 
-1 1:-0.0527 2:-0.746 
-1 1:-1.26 2:-0.912 
-1 1:0.81 2:1.93 
-1 1:0.353 2:1.58 
-1 1:0.907 2:0.191 
-1 1:1 2:-0.0897 
-1 1:-0.542 2:-0.739 
-1 1:-1.63 2:0.293 
-1 1:0.388 2:1.64 
-1 1:0.874 2:1.79 
-1 1:0.678 2:0.335 
-1 1:1.03 2:0.0331 
-1 1:0.126 2:0.819 
-1 1:-0.214 2:1.76 
-1 1:0.88 2:0.275 
-1 1:0.499 2:-1.17 
-1 1:0.69 2:1.57 
-1 1:-0.542 2:0.918 
-1 1:2.22 2:-2.04 
-1 1:0.569 2:-0.858 
-1 1:0.22 2:-0.867 
-1 1:1.13 2:-0.0116 
-1 1:-0.995 2:-0.832 
-0.91062610166870206 1:-0.981 2:-1.04 
-1 1:-0.494 2:-0.719 
-1 1:-1.03 2:0.681 
-1 1:0.409 2:1.76 
-1 1:0.381 2:1.55 
-1 1:0.724 2:0.417 
-1 1:1.08 2:-0.000817 
-1 1:-0.147 2:1.85 
-1 1:0.318 2:-0.87 
-1 1:0.632 2:1.74 
-1 1:0.17 2:-0.719 
-1 1:0.535 2:1.99 
-1 1:0.0182 2:1.68 
-1 1:0.386 2:-0.997 
-1 1:0.105 2:1.77 
-1 1:0.619 2:1.65 
-1 1:1.03 2:-0.0835 
-1 1:0.716 2:0.487 
-1 1:-0.956 2:-0.77 
-1 1:-1.45 2:0.377 
-1 1:0.912 2:2.1 
-1 1:1.43 2:-0.366 
-1 1:-1.59 2:0.176 
-1 1:0.188 2:0.914 
-1 1:1.02 2:0.0541 
-1 1:-0.00515 2:1.75 
-1 1:0.546 2:-1.12 
-1 1:-0.826 2:0.682 
-1 1:0.365 2:0.632 
-1 1:0.448 2:0.71 
-1 1:-0.922 2:0.533 
-1 1:0.328 2:0.553 
-1 1:-0.847 2:-0.871 
-1 1:-0.583 2:-0.743 
-1 1:-2.04 2:0.131 
-1 1:-1.16 2:-1.01 
-0.38401061692441352 1:-0.606 2:3.19 
-1 1:-0.462 2:-0.707 
-1 1:-2 2:-0.0624 
-1 1:-0.434 2:1.98 
-1 1:-0.192 2:1.04 
-1 1:0.108 2:-0.769 
-1 1:-0.878 2:0.659 
-1 1:1.22 2:-0.345 
-1 1:-1.2 2:-1.04 
-1 1:0.479 2:-0.821 
-1 1:1.08 2:-0.133 
-1 1:0.369 2:1.69 
-1 1:0.405 2:1.93 
-1 1:0.666 2:-1.52 
-1 1:-1.12 2:-1.2 
-1 1:0.624 2:-1.31 
-1 1:0.569 2:1.44 
-1 1:1.29 2:-0.499 
-1 1:0.675 2:-1.53 
-1 1:1.21 2:-0.132 
-1 1:1.06 2:-0.232 
-1 1:-0.676 2:0.797 
-1 1:0.514 2:0.715 
-1 1:-2.06 2:-0.332 
-1 1:0.383 2:-0.987 
-1 1:1.17 2:1.28 
-1 1:-0.448 2:0.91 
-1 1:-0.973 2:0.712 
-1 1:0.388 2:0.863 
-1 1:1.38 2:1.27 
-1 1:0.372 2:-0.809 
-1 1:-0.511 2:-0.734 
-1 1:0.449 2:0.648 
-1 1:0.651 2:-1.08 
-1 1:1.03 2:1.61 
-1 1:0.985 2:1.16 
-1 1:1.18 2:-0.789 
-1 1:0.386 2:1.92 
-1 1:1.23 2:2.19 
-1 1:0.45 2:1.6 
-1 1:0.44 2:-0.778 
-1 1:-0.544 2:-0.773 
-1 1:-0.737 2:-0.617 
-1 1:-0.926 2:0.694 
-1 1:0.393 2:1.64 
-1 1:-1.42 2:0.275 
-1 1:-0.239 2:-0.619 
-1 1:1.09 2:1.21 
-1 1:0.948 2:1.41 
-1 1:-1.02 2:0.675 
-1 1:-0.00835 2:1.76 
-1 1:1 2:-0.0347 
-1 1:1.41 2:0.9 
-1 1:-1.53 2:0.39 
-1 1:-1.16 2:-0.641 
-1 1:0.362 2:1.59 
-1 1:-0.0906 2:2.01 
-1 1:1.21 2:-0.271 
-1 1:1.26 2:-0.25 
-1 1:0.0558 2:1.88 
-1 1:-1.7 2:-0.087 
-1 1:1.3 2:1.04 
-1 1:0.299 2:-0.819 
-1 1:-1.1 2:-1.13 
-1 1:0.342 2:-0.701 
-1 1:0.908 2:0.127 
-1 1:1.31 2:0.936 
-1 1:-0.96 2:0.644 
-1 1:1.28 2:-0.588 
-1 1:-0.157 2:1.84 
-1 1:0.288 2:1.62 
-1 1:-1.51 2:0.384 
-1 1:0.245 2:-0.681 
-1 1:-0.804 2:0.687 
-1 1:0.577 2:0.628 
-1 1:0.563 2:0.661 
-1 1:0.407 2:1.8 
-1 1:-1.1 2:-1.24 
-1 1:-0.0633 2:-0.699 
-1 1:1.12 2:-0.422 
-1 1:1.03 2:-0.209 
-1 1:0.0545 2:2 
-1 1:0.829 2:1.56 
-1 1:0.196 2:-0.779 
-1 1:0.311 2:1.68 
-1 1:0.388 2:1.72 
-1 1:0.258 2:-0.85 
-1 1:-0.132 2:0.954 
-1 1:-0.515 2:0.976 
-1 1:-0.231 2:-0.75 
-1 1:-0.579 2:0.79 
-0.10077857049620249 1:-0.975 2:0.725 
-1 1:0.139 2:-0.762 
-1 1:1.22 2:-0.106 
-1 1:-0.851 2:0.681 
-1 1:-1.06 2:0.665 
-1 1:-0.747 2:-0.72 
-1 1:0.427 2:1.99 
-1 1:0.0745 2:1.78 
-1 1:1.19 2:-0.278 
-1 1:0.745 2:0.366 
-1 1:-1.06 2:-0.881 
-1 1:0.479 2:1.48 
-1 1:-0.115 2:-0.719 
-1 1:0.514 2:1.52 
-1 1:-0.644 2:-0.78 
-1 1:0.63 2:-1.23 
-1 1:-0.0685 2:0.931 
-1 1:1.05 2:-0.23 
-1 1:-1.58 2:0.272 
-1 1:0.57 2:1.42 
-1 1:1.25 2:-0.202 
-1 1:-0.163 2:-0.759 
-1 1:1.35 2:-0.461 
-1 1:0.56 2:-1.02 
-1 1:-0.0939 2:1.68 
-1 1:-1.49 2:0.415 
-1 1:0.407 2:-0.94 
-1 1:-0.246 2:-0.739 
-1 1:0.238 2:1.74 
-1 1:-1.84 2:0.0932 
-1 1:0.994 2:0.0734 
-1 1:1.18 2:-0.277 
-1 1:0.586 2:0.402 
-1 1:-1.19 2:-1.32 
-1 1:-0.835 2:0.671 
-0.86908791792922224 1:-3.09 2:-0.832 
-1 1:-0.77 2:0.637 
-1 1:1.8 2:0.757 
-1 1:-1.43 2:0.245 
-1 1:0.518 2:1.7 
-1 1:1.27 2:-0.685 
-1 1:1.49 2:-0.886 
-1 1:0.752 2:1.58 
-1 1:0.615 2:0.375 
-1 1:0.335 2:1.95 
-1 1:-1.19 2:-0.976 
-1 1:-0.911 2:-0.908 
-1 1:0.185 2:0.617 
-1 1:-1.08 2:-0.952 
-1 1:1.41 2:-0.447 
-1 1:0.604 2:0.555 
-1 1:0.627 2:0.234 
-1 1:1.42 2:-0.656 
-1 1:1.27 2:-0.747 
-1 1:0.477 2:1.83 
-1 1:1.22 2:1.04 
-1 1:0.00356 2:1.87 
-1 1:0.846 2:1.87 
-1 1:-0.0686 2:1.72 
-1 1:0.538 2:-1.25 
-1 1:0.527 2:-1.13 
-1 1:0.0243 2:-0.719 
-1 1:0.88 2:-0.241 
-1 1:0.82 2:1.83 
-1 1:0.832 2:1.33 
-1 1:0.432 2:0.749 
-1 1:-0.0454 2:1.75 
-1 1:-0.449 2:1.04 
-1 1:-0.527 2:0.887 
-1 1:-0.35 2:2.07 
-1 1:-0.18 2:-0.639 
-1 1:0.368 2:-0.856 
-1 1:-1.3 2:0.469 
-1 1:1.55 2:-0.649 
-1 1:-0.436 2:1.86 
-1 1:0.917 2:0.231 
-1 1:-1.53 2:0.257 
-0.98033985034338034 1:0.289 2:1.01 
-1 1:1.07 2:1.53 
-1 1:-0.0677 2:1.74 
-1 1:-1.13 2:-1.06 
-1 1:0.0114 2:1.66 
-1 1:0.344 2:0.908 
-1 1:-0.817 2:-0.783 
-1 1:0.517 2:1.71 
-1 1:-0.882 2:-0.726 
-1 1:1.27 2:-0.519 
-1 1:-1.17 2:0.586 
-0.021681538823088063 1:-0.265 2:1.71 
-1 1:-1.42 2:-1.4 
-1 1:0.0273 2:-0.683 
-1 1:-0.758 2:0.794 
-1 1:0.462 2:1.89 
-1 1:1.16 2:-0.254 
-1 1:0.725 2:1.33 
-1 1:0.298 2:-0.878 
-1 1:-1.12 2:-1.17 
-1 1:-0.0845 2:1.15 
-1 1:1.35 2:-0.518 
-1 1:1.12 2:1.14 
-1 1:-1 2:-0.885 
-1 1:0.8 2:1.56 
-1 1:-1.62 2:0.213 
-1 1:0.143 2:0.845 
-1 1:-0.872 2:0.663 
-1 1:-1.2 2:-1.4 
-1 1:-1.04 2:-1.07 
-1 1:0.803 2:0.349 
-1 1:1.3 2:-0.346 
-1 1:-0.479 2:0.91 
-1 1:0.157 2:0.956 
-1 1:-0.823 2:0.729 
-0.077934571017710022 1:2.27 2:0.284 
-1 1:1.17 2:1.37 
-1 1:-0.306 2:2.28 
-1 1:-0.211 2:-0.637 
-1 1:1.54 2:-0.749 
-1 1:-0.0113 2:-0.78 
-1 1:0.127 2:1.94 
-1 1:-0.625 2:-0.675 
-1 1:-0.704 2:0.71 
-1 1:0.672 2:1.57 
-0.63436319624821902 1:-2.37 2:-0.01 
-1 1:1.36 2:-0.412 
-1 1:1.5 2:-0.993 
-1 1:-1.04 2:-1.08 
-1 1:-0.443 2:1.02 
-1 1:0.351 2:-0.964 
-1 1:0.985 2:0.114 
-1 1:0.179 2:1.87 
-1 1:-0.555 2:0.908 
-1 1:-1.21 2:-1.22 
-1 1:0.517 2:1.46 
-1 1:0.329 2:0.606 
-1 1:-0.144 2:1.68 
-1 1:-1.23 2:-0.977 
-1 1:1.71 2:-0.945 
-1 1:0.976 2:1.24 
-1 1:0.193 2:1.72 
-1 1:1.88 2:-1.13 
-1 1:-0.0882 2:1.17 
-1 1:0.831 2:1.35 
-1 1:0.762 2:0.344 
-1 1:0.777 2:0.312 
-1 1:-0.507 2:1.89 
-1 1:0.273 2:1.79 
-1 1:1.47 2:-0.531 
-1 1:0.513 2:0.741 
-1 1:0.722 2:0.368 
-1 1:0.707 2:1.37 
-1 1:0.196 2:1.76 
-1 1:0.44 2:-0.936 
-1 1:0.284 2:1.86 
-1 1:0.941 2:1.46 
-1 1:0.533 2:1.76 
-1 1:0.155 2:1.88 
-1 1:0.84 2:1.42 
-1 1:-0.668 2:0.919 
-1 1:0.0125 2:-0.665 
-1 1:0.835 2:1.24 
-1 1:0.304 2:1.61 
-1 1:0.513 2:1.5 
-1 1:0.0722 2:1.8 
-1 1:0.65 2:1.86 
-1 1:-0.314 2:-0.72 
-1 1:0.143 2:-0.786 
-1 1:0.739 2:2.14 
-1 1:-0.17 2:1.18 
-1 1:0.443 2:1.54 
-1 1:0.627 2:0.125 
-1 1:0.594 2:1.8 
-1 1:1.02 2:0.0975 
-1 1:0.606 2:-0.877 
-1 1:0.14 2:-0.8 
-1 1:0.379 2:1.74 
-1 1:0.603 2:-1 
-1 1:-0.108 2:1.7 
-1 1:-0.412 2:-0.689 
-1 1:-0.756 2:-0.679 
-1 1:-0.702 2:-0.811 
-1 1:0.212 2:1.81 
-1 1:1.08 2:-0.628 
-1 1:0.339 2:0.881 
-1 1:0.838 2:1.5 
-1 1:0.786 2:1.31 
-1 1:0.829 2:-0.305 
-1 1:-0.989 2:0.48 
-1 1:0.364 2:-0.858 
-1 1:0.273 2:1.68 
-1 1:1.13 2:1.07 
-1 1:0.387 2:-0.798 
-1 1:-0.434 2:2.24 
-1 1:0.423 2:1.74 
-1 1:-0.816 2:0.562 
-1 1:-0.828 2:-0.82 
-1 1:-0.183 2:1.15 
-1 1:-1.55 2:0.378 
-1 1:-1.04 2:0.621 
-1 1:0.424 2:0.471 
-1 1:-0.391 2:1.03 
-1 1:-1.06 2:-0.937 
-1 1:1.28 2:-0.236 
-1 1:-0.958 2:0.536 
-1 1:-0.0406 2:2.09 
-1 1:0.568 2:0.244 
-1 1:-0.672 2:-0.601 
-1 1:0.847 2:1.4 
-1 1:0.504 2:0.0752 
-1 1:0.463 2:0.498 
-1 1:-0.162 2:1.84 
-1 1:-0.532 2:0.978 
-1 1:0.527 2:-1.02 
-1 1:0.504 2:1.78 
-1 1:0.625 2:1.67 
-1 1:-0.165 2:-0.697 
-1 1:-0.317 2:1.77 
-1 1:0.469 2:1.91 
-1 1:1.25 2:-0.322 
-1 1:-1.57 2:0.378 
-1 1:-1.16 2:0.41 
-1 1:1.03 2:1.29 
-1 1:0.822 2:0.192 
-1 1:-1.31 2:-0.903 
-1 1:1.87 2:-1.16 
-1 1:-0.337 2:1.85 
-1 1:1.2 2:-0.213 
-1 1:1.03 2:-0.191 
-1 1:0.572 2:-1.24 
-1 1:1.22 2:1.35 
-1 1:0.648 2:1.41 
-1 1:0.981 2:0.0921 
-1 1:-1.12 2:0.494 
-1 1:0.498 2:-1.02 
-1 1:-1.59 2:0.322 
-1 1:-0.695 2:-0.736 
-1 1:0.916 2:1.63 
-1 1:0.521 2:-1.04 
-1 1:-0.965 2:-0.978 
-1 1:-0.967 2:0.592 
-1 1:0.803 2:1.35 
-1 1:-0.968 2:-0.912 
-1 1:1.39 2:-0.498 
-1 1:0.615 2:0.558 
-1 1:0.48 2:-1.1 
-1 1:0.823 2:-1.21 
-1 1:-1.09 2:0.531 
-1 1:0.614 2:-1.46 
-1 1:1.08 2:0.0163 
-0.16679749843402097 1:-1.4 2:0.475 
-1 1:1.18 2:1.49 
-1 1:1.11 2:-0.0628 
-1 1:-0.285 2:1.98 
-1 1:0.485 2:0.635 
-1 1:-0.674 2:0.842 
-1 1:0.826 2:1.42 
-1 1:0.877 2:0.161 
-1 1:0.647 2:0.317 
-1 1:-0.276 2:1.05 
-1 1:1 2:1.17 
